digraph Tree {
node [shape=box] ;
0 [label="B.maxabs <= 505000.5\nmse = 1545449.058\nsamples = 79\nvalue = 191.924"] ;
1 [label="P.c <= 1.5\nmse = 1.161\nsamples = 70\nvalue = 2.157"] ;
0 -> 1 [labeldistance=2.5, labelangle=45, headlabel="True"] ;
2 [label="P.maxabs <= 26.5\nmse = 0.284\nsamples = 18\nvalue = 1.222"] ;
1 -> 2 ;
3 [label="Q.d <= 1.5\nmse = 0.104\nsamples = 17\nvalue = 1.118"] ;
2 -> 3 ;
4 [label="P.maxabs <= 2.0\nmse = 0.25\nsamples = 4\nvalue = 1.5"] ;
3 -> 4 ;
5 [label="B.maxabs <= 6.5\nmse = 0.222\nsamples = 3\nvalue = 1.667"] ;
4 -> 5 ;
6 [label="mse = 0.0\nsamples = 2\nvalue = 2.0"] ;
5 -> 6 ;
7 [label="mse = 0.0\nsamples = 1\nvalue = 1.0"] ;
5 -> 7 ;
8 [label="mse = 0.0\nsamples = 1\nvalue = 1.0"] ;
4 -> 8 ;
9 [label="mse = 0.0\nsamples = 13\nvalue = 1.0"] ;
3 -> 9 ;
10 [label="mse = 0.0\nsamples = 1\nvalue = 3.0"] ;
2 -> 10 ;
11 [label="Q.maxabs <= 1.5\nmse = 1.057\nsamples = 52\nvalue = 2.481"] ;
1 -> 11 ;
12 [label="T.d <= 1.5\nmse = 0.819\nsamples = 32\nvalue = 2.156"] ;
11 -> 12 ;
13 [label="Q.c <= 2.5\nmse = 0.79\nsamples = 25\nvalue = 2.36"] ;
12 -> 13 ;
14 [label="P.c <= 2.5\nmse = 0.743\nsamples = 24\nvalue = 2.417"] ;
13 -> 14 ;
15 [label="n <= 2.5\nmse = 0.41\nsamples = 12\nvalue = 2.083"] ;
14 -> 15 ;
16 [label="Q.c <= 1.5\nmse = 0.234\nsamples = 8\nvalue = 2.375"] ;
15 -> 16 ;
17 [label="Q.d <= 1.5\nmse = 0.204\nsamples = 7\nvalue = 2.286"] ;
16 -> 17 ;
18 [label="mse = 0.0\nsamples = 2\nvalue = 2.0"] ;
17 -> 18 ;
19 [label="T.exteriorderivative_max <= 0.5\nmse = 0.24\nsamples = 5\nvalue = 2.4"] ;
17 -> 19 ;
20 [label="mse = 0.0\nsamples = 1\nvalue = 2.0"] ;
19 -> 20 ;
21 [label="Q.d <= 2.5\nmse = 0.25\nsamples = 4\nvalue = 2.5"] ;
19 -> 21 ;
22 [label="P.maxabs <= 2.5\nmse = 0.222\nsamples = 3\nvalue = 2.667"] ;
21 -> 22 ;
23 [label="mse = 0.25\nsamples = 2\nvalue = 2.5"] ;
22 -> 23 ;
24 [label="mse = 0.0\nsamples = 1\nvalue = 3.0"] ;
22 -> 24 ;
25 [label="mse = 0.0\nsamples = 1\nvalue = 2.0"] ;
21 -> 25 ;
26 [label="mse = 0.0\nsamples = 1\nvalue = 3.0"] ;
16 -> 26 ;
27 [label="mse = 0.25\nsamples = 4\nvalue = 1.5"] ;
15 -> 27 ;
28 [label="n <= 2.5\nmse = 0.854\nsamples = 12\nvalue = 2.75"] ;
14 -> 28 ;
29 [label="mse = 0.0\nsamples = 1\nvalue = 1.0"] ;
28 -> 29 ;
30 [label="P.maxabs <= 51.5\nmse = 0.628\nsamples = 11\nvalue = 2.909"] ;
28 -> 30 ;
31 [label="T.interiorderivative_min <= 3.5\nmse = 0.694\nsamples = 7\nvalue = 3.143"] ;
30 -> 31 ;
32 [label="Q.c <= 1.5\nmse = 0.96\nsamples = 5\nvalue = 3.2"] ;
31 -> 32 ;
33 [label="P.maxabs <= 1.5\nmse = 1.556\nsamples = 3\nvalue = 3.333"] ;
32 -> 33 ;
34 [label="mse = 2.25\nsamples = 2\nvalue = 3.5"] ;
33 -> 34 ;
35 [label="mse = 0.0\nsamples = 1\nvalue = 3.0"] ;
33 -> 35 ;
36 [label="mse = 0.0\nsamples = 2\nvalue = 3.0"] ;
32 -> 36 ;
37 [label="mse = 0.0\nsamples = 2\nvalue = 3.0"] ;
31 -> 37 ;
38 [label="Q.d <= 3.5\nmse = 0.25\nsamples = 4\nvalue = 2.5"] ;
30 -> 38 ;
39 [label="P.maxabs <= 500051.0\nmse = 0.222\nsamples = 3\nvalue = 2.667"] ;
38 -> 39 ;
40 [label="mse = 0.0\nsamples = 1\nvalue = 2.0"] ;
39 -> 40 ;
41 [label="mse = 0.0\nsamples = 2\nvalue = 3.0"] ;
39 -> 41 ;
42 [label="mse = 0.0\nsamples = 1\nvalue = 2.0"] ;
38 -> 42 ;
43 [label="mse = 0.0\nsamples = 1\nvalue = 1.0"] ;
13 -> 43 ;
44 [label="T.d <= 3.0\nmse = 0.245\nsamples = 7\nvalue = 1.429"] ;
12 -> 44 ;
45 [label="P.c <= 2.5\nmse = 0.16\nsamples = 5\nvalue = 1.2"] ;
44 -> 45 ;
46 [label="mse = 0.0\nsamples = 3\nvalue = 1.0"] ;
45 -> 46 ;
47 [label="T.interiorderivative_max <= 3.5\nmse = 0.25\nsamples = 2\nvalue = 1.5"] ;
45 -> 47 ;
48 [label="mse = 0.0\nsamples = 1\nvalue = 2.0"] ;
47 -> 48 ;
49 [label="mse = 0.0\nsamples = 1\nvalue = 1.0"] ;
47 -> 49 ;
50 [label="mse = 0.0\nsamples = 2\nvalue = 2.0"] ;
44 -> 50 ;
51 [label="T.d <= 1.5\nmse = 1.0\nsamples = 20\nvalue = 3.0"] ;
11 -> 51 ;
52 [label="P.c <= 2.5\nmse = 0.596\nsamples = 15\nvalue = 2.733"] ;
51 -> 52 ;
53 [label="n <= 2.5\nmse = 0.444\nsamples = 9\nvalue = 2.333"] ;
52 -> 53 ;
54 [label="B.c <= 1.5\nmse = 0.25\nsamples = 8\nvalue = 2.5"] ;
53 -> 54 ;
55 [label="Q.c <= 1.5\nmse = 0.16\nsamples = 5\nvalue = 2.8"] ;
54 -> 55 ;
56 [label="mse = 0.0\nsamples = 3\nvalue = 3.0"] ;
55 -> 56 ;
57 [label="P.maxabs <= 1.5\nmse = 0.25\nsamples = 2\nvalue = 2.5"] ;
55 -> 57 ;
58 [label="mse = 0.0\nsamples = 1\nvalue = 3.0"] ;
57 -> 58 ;
59 [label="mse = 0.0\nsamples = 1\nvalue = 2.0"] ;
57 -> 59 ;
60 [label="mse = 0.0\nsamples = 3\nvalue = 2.0"] ;
54 -> 60 ;
61 [label="mse = 0.0\nsamples = 1\nvalue = 1.0"] ;
53 -> 61 ;
62 [label="B.c <= 1.5\nmse = 0.222\nsamples = 6\nvalue = 3.333"] ;
52 -> 62 ;
63 [label="Q.maxabs <= 2.5\nmse = 0.16\nsamples = 5\nvalue = 3.2"] ;
62 -> 63 ;
64 [label="B.maxabs <= 1.5\nmse = 0.222\nsamples = 3\nvalue = 3.333"] ;
63 -> 64 ;
65 [label="P.maxabs <= 1.5\nmse = 0.25\nsamples = 2\nvalue = 3.5"] ;
64 -> 65 ;
66 [label="mse = 0.0\nsamples = 1\nvalue = 3.0"] ;
65 -> 66 ;
67 [label="mse = 0.0\nsamples = 1\nvalue = 4.0"] ;
65 -> 67 ;
68 [label="mse = 0.0\nsamples = 1\nvalue = 3.0"] ;
64 -> 68 ;
69 [label="mse = 0.0\nsamples = 2\nvalue = 3.0"] ;
63 -> 69 ;
70 [label="mse = 0.0\nsamples = 1\nvalue = 4.0"] ;
62 -> 70 ;
71 [label="Q.maxabs <= 76.0\nmse = 1.36\nsamples = 5\nvalue = 3.8"] ;
51 -> 71 ;
72 [label="T.interiorderivative_max <= 2.5\nmse = 0.25\nsamples = 2\nvalue = 2.5"] ;
71 -> 72 ;
73 [label="mse = 0.0\nsamples = 1\nvalue = 2.0"] ;
72 -> 73 ;
74 [label="mse = 0.0\nsamples = 1\nvalue = 3.0"] ;
72 -> 74 ;
75 [label="B.maxabs <= 76.0\nmse = 0.222\nsamples = 3\nvalue = 4.667"] ;
71 -> 75 ;
76 [label="mse = 0.0\nsamples = 1\nvalue = 5.0"] ;
75 -> 76 ;
77 [label="mse = 0.25\nsamples = 2\nvalue = 4.5"] ;
75 -> 77 ;
78 [label="Q.maxabs <= 1000000.5\nmse = 11107037.877\nsamples = 9\nvalue = 1667.889"] ;
0 -> 78 [labeldistance=2.5, labelangle=-45, headlabel="False"] ;
79 [label="mse = 0.0\nsamples = 1\nvalue = 10000.0"] ;
78 -> 79 ;
80 [label="T.d <= 1.5\nmse = 2732656.984\nsamples = 8\nvalue = 626.375"] ;
78 -> 80 ;
81 [label="P.maxabs <= 1.5\nmse = 4684376.188\nsamples = 4\nvalue = 1251.25"] ;
80 -> 81 ;
82 [label="mse = 5553333.556\nsamples = 3\nvalue = 1667.333"] ;
81 -> 82 ;
83 [label="mse = 0.0\nsamples = 1\nvalue = 3.0"] ;
81 -> 83 ;
84 [label="T.interiorderivative_min <= 1.5\nmse = 0.25\nsamples = 4\nvalue = 1.5"] ;
80 -> 84 ;
85 [label="mse = 0.0\nsamples = 2\nvalue = 1.0"] ;
84 -> 85 ;
86 [label="mse = 0.0\nsamples = 2\nvalue = 2.0"] ;
84 -> 86 ;
}